digraph Tree {
node [shape=box] ;
0 [label="X[18] <= 1.5\ngini = 0.2709\nsamples = 1102\nvalue = [924, 178]"] ;
1 [label="X[17] <= 0.5\ngini = 0.4999\nsamples = 71\nvalue = [35, 36]"] ;
0 -> 1 [labeldistance=2.5, labelangle=45, headlabel="True"] ;
2 [label="X[13] <= 0.5\ngini = 0.4444\nsamples = 42\nvalue = [14, 28]"] ;
1 -> 2 ;
3 [label="X[19] <= 3.5\ngini = 0.4974\nsamples = 28\nvalue = [13, 15]"] ;
2 -> 3 ;
4 [label="X[19] <= 2.5\ngini = 0.4321\nsamples = 19\nvalue = [6, 13]"] ;
3 -> 4 ;
5 [label="gini = 0.5\nsamples = 12\nvalue = [6, 6]"] ;
4 -> 5 ;
6 [label="gini = 0.0\nsamples = 7\nvalue = [0, 7]"] ;
4 -> 6 ;
7 [label="X[6] <= 2.5\ngini = 0.3457\nsamples = 9\nvalue = [7, 2]"] ;
3 -> 7 ;
8 [label="gini = 0.0\nsamples = 2\nvalue = [0, 2]"] ;
7 -> 8 ;
9 [label="gini = 0.0\nsamples = 7\nvalue = [7, 0]"] ;
7 -> 9 ;
10 [label="X[10] <= 2960.0\ngini = 0.1327\nsamples = 14\nvalue = [1, 13]"] ;
2 -> 10 ;
11 [label="gini = 0.0\nsamples = 13\nvalue = [0, 13]"] ;
10 -> 11 ;
12 [label="gini = 0.0\nsamples = 1\nvalue = [1, 0]"] ;
10 -> 12 ;
13 [label="X[11] <= 6896.0\ngini = 0.3995\nsamples = 29\nvalue = [21, 8]"] ;
1 -> 13 ;
14 [label="gini = 0.0\nsamples = 3\nvalue = [0, 3]"] ;
13 -> 14 ;
15 [label="X[2] <= 18.0\ngini = 0.3107\nsamples = 26\nvalue = [21, 5]"] ;
13 -> 15 ;
16 [label="X[28] <= 0.5\ngini = 0.0907\nsamples = 21\nvalue = [20, 1]"] ;
15 -> 16 ;
17 [label="gini = 0.0\nsamples = 20\nvalue = [20, 0]"] ;
16 -> 17 ;
18 [label="gini = 0.0\nsamples = 1\nvalue = [0, 1]"] ;
16 -> 18 ;
19 [label="X[27] <= 0.5\ngini = 0.32\nsamples = 5\nvalue = [1, 4]"] ;
15 -> 19 ;
20 [label="gini = 0.0\nsamples = 4\nvalue = [0, 4]"] ;
19 -> 20 ;
21 [label="gini = 0.0\nsamples = 1\nvalue = [1, 0]"] ;
19 -> 21 ;
22 [label="X[13] <= 0.5\ngini = 0.2375\nsamples = 1031\nvalue = [889, 142]"] ;
0 -> 22 [labeldistance=2.5, labelangle=-45, headlabel="False"] ;
23 [label="X[20] <= 1.5\ngini = 0.1607\nsamples = 749\nvalue = [683, 66]"] ;
22 -> 23 ;
24 [label="X[33] <= 0.5\ngini = 0.3988\nsamples = 40\nvalue = [29, 11]"] ;
23 -> 24 ;
25 [label="X[17] <= 0.5\ngini = 0.32\nsamples = 35\nvalue = [28, 7]"] ;
24 -> 25 ;
26 [label="gini = 0.48\nsamples = 15\nvalue = [9, 6]"] ;
25 -> 26 ;
27 [label="gini = 0.095\nsamples = 20\nvalue = [19, 1]"] ;
25 -> 27 ;
28 [label="X[30] <= 0.5\ngini = 0.32\nsamples = 5\nvalue = [1, 4]"] ;
24 -> 28 ;
29 [label="gini = 0.0\nsamples = 4\nvalue = [0, 4]"] ;
28 -> 29 ;
30 [label="gini = 0.0\nsamples = 1\nvalue = [1, 0]"] ;
28 -> 30 ;
31 [label="X[0] <= 32.5\ngini = 0.1431\nsamples = 709\nvalue = [654, 55]"] ;
23 -> 31 ;
32 [label="X[12] <= 4.5\ngini = 0.2263\nsamples = 223\nvalue = [194, 29]"] ;
31 -> 32 ;
33 [label="gini = 0.155\nsamples = 189\nvalue = [173, 16]"] ;
32 -> 33 ;
34 [label="gini = 0.4723\nsamples = 34\nvalue = [21, 13]"] ;
32 -> 34 ;
35 [label="X[4] <= 1.5\ngini = 0.1013\nsamples = 486\nvalue = [460, 26]"] ;
31 -> 35 ;
36 [label="gini = 0.2112\nsamples = 100\nvalue = [88, 12]"] ;
35 -> 36 ;
37 [label="gini = 0.0699\nsamples = 386\nvalue = [372, 14]"] ;
35 -> 37 ;
38 [label="X[10] <= 2469.5\ngini = 0.3937\nsamples = 282\nvalue = [206, 76]"] ;
22 -> 38 ;
39 [label="X[11] <= 15817.0\ngini = 0.4579\nsamples = 31\nvalue = [11, 20]"] ;
38 -> 39 ;
40 [label="X[6] <= 3.5\ngini = 0.3084\nsamples = 21\nvalue = [4, 17]"] ;
39 -> 40 ;
41 [label="gini = 0.1107\nsamples = 17\nvalue = [1, 16]"] ;
40 -> 41 ;
42 [label="gini = 0.375\nsamples = 4\nvalue = [3, 1]"] ;
40 -> 42 ;
43 [label="X[16] <= 2.5\ngini = 0.42\nsamples = 10\nvalue = [7, 3]"] ;
39 -> 43 ;
44 [label="gini = 0.375\nsamples = 4\nvalue = [1, 3]"] ;
43 -> 44 ;
45 [label="gini = 0.0\nsamples = 6\nvalue = [6, 0]"] ;
43 -> 45 ;
46 [label="X[4] <= 2.5\ngini = 0.3467\nsamples = 251\nvalue = [195, 56]"] ;
38 -> 46 ;
47 [label="X[17] <= 0.5\ngini = 0.481\nsamples = 82\nvalue = [49, 33]"] ;
46 -> 47 ;
48 [label="gini = 0.4821\nsamples = 37\nvalue = [15, 22]"] ;
47 -> 48 ;
49 [label="gini = 0.3694\nsamples = 45\nvalue = [34, 11]"] ;
47 -> 49 ;
50 [label="X[19] <= 1.5\ngini = 0.2351\nsamples = 169\nvalue = [146, 23]"] ;
46 -> 50 ;
51 [label="gini = 0.4844\nsamples = 17\nvalue = [10, 7]"] ;
50 -> 51 ;
52 [label="gini = 0.1884\nsamples = 152\nvalue = [136, 16]"] ;
50 -> 52 ;
}